#include "model_data.h"

const float W1_data[] PROGMEM = {
    -0.39788383f, 0.46116278f, 0.3715687f, -0.07777083f, -0.2472133f, 0.13155949f, 0.6120839f, -0.07711333f, 0.30813938f, 0.0954016f, 0.069017954f, 0.14382412f, 0.50789833f, 0.18803687f, -0.0057444884f, -0.5632218f
};

const float b1_data[] PROGMEM = {
    0.0f, 0.47112474f, -1.0349379f, 0.0f, 0.0f, 0.018007103f, -0.6069822f, 0.0f, -0.4051202f, 0.33553293f, 0.78297186f, 0.13247779f, 0.08387113f, -0.1520639f, 0.3705848f, 0.0f
};

const float W2_data[] PROGMEM = {
    0.008752942f, 0.10046681f, -0.5594067f, -0.38656723f, 0.026203513f, 0.3809035f, -0.27524522f, 0.22883019f, -0.54360247f, 0.30872577f, 0.2096457f, -0.2986594f, 0.16710472f, 0.08122665f, 0.49408376f, 0.26714543f, -0.04890293f, 0.23022875f, 1.0559002f, -0.13226247f, 0.36876526f, -0.4758394f, 0.014797875f, 0.19773671f, 0.14072222f, 0.09920495f, -0.28671607f, -0.2952227f, 0.22445521f, -0.1557873f, -0.44671398f, -0.26854938f, -0.079212666f, -0.061804853f, 0.20164743f, 0.033375174f, 0.41258594f, 0.37628275f, -0.47459936f, -0.0540981f, -0.0992337f, 0.17203633f, 0.42368558f, -0.11045875f, -0.6382502f, 0.07229512f, 0.65322745f, -0.00450325f, 0.42651084f, 0.14322363f, -0.06504886f, 0.23714831f, -0.09616521f, -0.012079281f, -0.03893903f, -0.12964973f, -0.080721244f, 0.18545523f, 0.5673849f, 0.35440624f, 0.40770048f, 0.2963744f, 0.23040722f, -0.40284377f, 0.1633878f, -0.17845818f, 0.41858193f, 0.03324738f, -0.07839513f, -0.24564163f, -0.41076794f, -0.011841029f, 0.07035999f, 0.014453096f, -0.09521273f, -0.38453805f, 0.059534963f, 0.31901756f, -0.0018180311f, -0.2622439f, -0.13349813f, 0.4687281f, -0.9387802f, 0.04901907f, 0.2085382f, -0.303582f, -0.048075523f, 0.21998444f, -0.09892515f, 0.29634193f, -0.03009107f, 0.33730397f, 0.17282778f, 0.010907181f, 0.5294982f, 0.3438234f, -0.05536762f, -0.33797836f, -0.06396872f, -0.40171507f, 0.011573434f, -0.33963677f, 0.28419265f, 0.089041024f, -0.14800817f, 0.017468125f, -0.1677407f, -0.3162433f, -0.09961668f, -0.17236248f, -0.40889624f, -0.042404294f, 0.087521404f, 0.3853618f, -0.17944188f, 0.18648282f, -0.2124529f, -0.0745753f, -0.18397354f, -0.084926695f, 0.1374913f, 0.36279848f, -0.1267633f, -0.06970617f, -0.26084384f, -0.5170918f, 0.5406603f, -0.16587976f, -0.037564486f, 0.29767224f, -0.7600049f, -0.38397318f, -0.35034558f, 0.2557612f, -0.45015487f, 0.15666643f, -0.41905773f, -0.4432149f, 0.5227524f, 0.051928133f, 0.06536075f, -0.20488113f, 0.93944883f, 0.22275141f, 0.21884283f, -0.20963274f, -0.28421858f, -0.33921123f, -0.4297228f, 0.33329493f, -0.3863936f, 0.3075181f, 0.06726721f, -0.4954743f, 0.4366714f, 0.081145726f, -0.6088066f, 0.36570713f, 0.49990937f, 0.12871823f, -0.27020234f, 0.3055169f, -0.4178655f, 0.13673994f, 0.3320376f, -0.24873519f, 0.14424029f, -0.2923328f, -0.06564156f, 0.30418956f, 0.25396284f, -0.062110756f, 0.34823626f, -0.35044038f, 0.22929129f, -0.26139465f, 0.042224765f, -0.29030794f, -0.11388543f, -0.22762935f, 0.366491f, 0.4184937f, -0.2679914f, 0.05284396f, 0.31304586f, 0.46836898f, 0.4662841f, -0.3168484f, -0.62202334f, 0.22289956f, 0.25762904f, -0.4111679f, 0.042361856f, 0.32926273f, 0.292555f, 0.2597312f, 0.25294778f, 0.26584086f, 0.39530355f, -0.18725905f, 0.4278392f, -0.42083043f, -0.662066f, 0.020050874f, 0.07275363f, 0.14569889f, -0.2032377f, 0.26153424f, 0.04289168f, 0.28540748f, -0.011160894f, 0.08113453f, -0.3503822f, 0.08603693f, 0.10026496f, -0.36113915f, -0.42191446f, -0.19292475f, 0.059979536f, -0.46330738f, -0.13543011f, -0.031109314f, -0.04798102f, 0.11116436f, -0.19061677f, 0.42657918f, -0.9026991f, -0.2057866f, 0.3852652f, 0.109483086f, -0.5143333f, 0.044659853f, -0.23391826f, 0.013950172f, 0.53942573f, 0.25642928f, -0.25812334f, -0.5175727f, 0.9448253f, -0.22992402f, -0.33865362f, 0.23385412f, -0.14182074f, 0.1301175f, 0.42415115f, 0.24237347f, 0.28174022f, 0.13199261f, -0.28549045f, -0.055565543f, -0.034443192f, -0.18449251f, -0.09318607f, -0.29925725f, 0.21919051f, 0.22934195f
};

const float b2_data[] PROGMEM = {
    0.26377532f, -0.45455533f, 0.42449933f, 0.27063936f, -0.005065765f, 0.332522f, 0.0f, 0.2209661f, 0.55025387f, 0.45371056f, 0.14686571f, 0.46175304f, -0.32032987f, 0.14935441f, 0.51105094f, 0.2417469f
};

const float W3_data[] PROGMEM = {
    0.8117f, 0.62595254f, -0.5416186f, -0.17542624f, 0.09408076f, -0.8181666f, -0.38303018f, 0.4873742f, 0.7816993f, -0.7960945f, -0.060853384f, -0.9514488f, 0.5558745f, 0.59897417f, 0.7961271f, -0.16341376f
};

const float b3_data[] PROGMEM = {
    -0.31720653f
};
